{
  "inputNodes": 5,
  "hiddenNodes": 8,
  "outputNodes": 2,
  "weights_ih": {
    "rows": 8,
    "cols": 5,
    "vals": [
      [
        -0.5446153699741542,
        0.6920440345335719,
        0.14913882349774576,
        -1.7891514016796877,
        -6.223726199429679
      ],
      [
        4.1475597065109575,
        1.9289376425112519,
        5.207768828032984,
        -1.719418598751696,
        -1.3113132678210104
      ],
      [
        0.2629797333849344,
        1.0879274862733563,
        1.491252545511761,
        0.07790109555840138,
        -1.5957401567415028
      ],
      [
        3.049831812236747,
        0.19498096855400604,
        -1.5462456439444487,
        -0.7681906606819651,
        -2.7586556015554433
      ],
      [
        -2.2112716648747877,
        -2.3567777751317887,
        -0.8623537609118836,
        0.5110724769875183,
        1.1252018103418642
      ],
      [
        -5.542844630317404,
        4.200427906043932,
        0.7803947490304293,
        -3.9794704488001065,
        -0.4023773993070031
      ],
      [
        1.7841483456814384,
        -0.6691849500489072,
        -0.5222315343526819,
        2.3488808753421675,
        0.652409076597648
      ],
      [
        0.6577536584423385,
        0.82380959099246,
        0.8816496388303997,
        -2.3817653171233943,
        -2.547164683372641
      ]
    ]
  },
  "weights_ho": {
    "rows": 2,
    "cols": 8,
    "vals": [
      [
        -1.5400907816130127,
        1.4329815888508275,
        1.7117850843041966,
        5.005056569782291,
        -1.2564894620999412,
        3.5899938398260733,
        -2.251352234360029,
        2.930345468419774
      ],
      [
        -0.41377813201920255,
        -1.6733075822930006,
        0.28943347730793995,
        -0.014011539591710418,
        3.102777277048832,
        -3.066586146755672,
        2.078827548882817,
        1.0367387650153712
      ]
    ]
  },
  "bias_h": {
    "rows": 8,
    "cols": 1,
    "vals": [
      [
        2.189736222967404
      ],
      [
        -0.2860860375744717
      ],
      [
        -0.9318360922746989
      ],
      [
        1.5919690391795425
      ],
      [
        4.671695470519187
      ],
      [
        0.1967421739203582
      ],
      [
        -0.42295053043650976
      ],
      [
        1.6810161404971828
      ]
    ]
  },
  "bias_o": {
    "rows": 2,
    "cols": 1,
    "vals": [
      [
        0.5014960567649411
      ],
      [
        -1.2331301145224043
      ]
    ]
  },
  "learningrate": 0.1,
  "activation_function": {}
}
