{
  "inputNodes": 5,
  "hiddenNodes": 8,
  "outputNodes": 2,
  "weights_ih": {
    "rows": 8,
    "cols": 5,
    "vals": [
      [
        18.92048212505273,
        -11.676653258912479,
        -0.9971679349598135,
        10.218517329901083,
        3.5824682317768604
      ],
      [
        13.782574234566109,
        -1.8645872857168035,
        -0.4370831395174206,
        1.4909687053150167,
        -8.240203203599005
      ],
      [
        3.1113632505910624,
        -6.758224626276347,
        2.631892072553296,
        2.0974372198834197,
        -0.4054852145691733
      ],
      [
        3.968418588794309,
        -6.450893885295045,
        3.971608133513608,
        -4.821401186325121,
        -6.267553624215052
      ],
      [
        -2.1292747337884883,
        3.623033819881255,
        -4.416507727168907,
        -4.556090189850943,
        4.206868417880568
      ],
      [
        7.423912271365095,
        -3.0814730103741312,
        -4.407579925364953,
        1.6350910509506749,
        3.9809281528464084
      ],
      [
        4.643459362072584,
        4.724298580366887,
        0.3386880442775879,
        -5.300569577350187,
        0.2859183446072379
      ],
      [
        0.17785108415226802,
        5.941944362133032,
        0.7193887487937101,
        -7.191172917633373,
        7.191815560786101
      ]
    ]
  },
  "weights_ho": {
    "rows": 2,
    "cols": 8,
    "vals": [
      [
        -12.40804101838476,
        10.252954557971023,
        -3.0596805736986568,
        9.363556593584462,
        6.787372094062901,
        -8.043229050393807,
        12.567773067790165,
        3.782520158363918
      ],
      [
        3.7307210616493367,
        -3.8600184949897764,
        6.534154359656653,
        5.158735671681151,
        2.233288588042327,
        1.2623629956232525,
        -5.495963891190738,
        4.73901898238687
      ]
    ]
  },
  "bias_h": {
    "rows": 8,
    "cols": 1,
    "vals": [
      [
        -4.572734802536859
      ],
      [
        1.4697006590785149
      ],
      [
        7.279936662499887
      ],
      [
        -0.28264398036004956
      ],
      [
        -0.7352243106664037
      ],
      [
        -8.537405225438341
      ],
      [
        2.12107300870713
      ],
      [
        -8.770696799678811
      ]
    ]
  },
  "bias_o": {
    "rows": 2,
    "cols": 1,
    "vals": [
      [
        -0.9683100121020913
      ],
      [
        -3.9966563000582993
      ]
    ]
  },
  "learningrate": 0.1,
  "activation_function": {}
}
